digraph Tree {
node [shape=box] ;
0 [label="X[107] <= 0.303\ngini = 0.454\nsamples = 394\nvalue = [137, 257]"] ;
1 [label="X[89] <= 0.805\ngini = 0.325\nsamples = 132\nvalue = [27, 105]"] ;
0 -> 1 [labeldistance=2.5, labelangle=45, headlabel="True"] ;
2 [label="X[102] <= 0.686\ngini = 0.496\nsamples = 35\nvalue = [16, 19]"] ;
1 -> 2 ;
3 [label="X[85] <= 0.776\ngini = 0.454\nsamples = 23\nvalue = [15, 8]"] ;
2 -> 3 ;
4 [label="gini = 0.0\nsamples = 4\nvalue = [0, 4]"] ;
3 -> 4 ;
5 [label="X[112] <= 0.684\ngini = 0.332\nsamples = 19\nvalue = [15, 4]"] ;
3 -> 5 ;
6 [label="X[8] <= 0.924\ngini = 0.124\nsamples = 15\nvalue = [14, 1]"] ;
5 -> 6 ;
7 [label="gini = 0.0\nsamples = 14\nvalue = [14, 0]"] ;
6 -> 7 ;
8 [label="gini = 0.0\nsamples = 1\nvalue = [0, 1]"] ;
6 -> 8 ;
9 [label="X[24] <= 0.005\ngini = 0.375\nsamples = 4\nvalue = [1, 3]"] ;
5 -> 9 ;
10 [label="gini = 0.0\nsamples = 1\nvalue = [1, 0]"] ;
9 -> 10 ;
11 [label="gini = 0.0\nsamples = 3\nvalue = [0, 3]"] ;
9 -> 11 ;
12 [label="X[99] <= 0.85\ngini = 0.153\nsamples = 12\nvalue = [1, 11]"] ;
2 -> 12 ;
13 [label="gini = 0.0\nsamples = 1\nvalue = [1, 0]"] ;
12 -> 13 ;
14 [label="gini = 0.0\nsamples = 11\nvalue = [0, 11]"] ;
12 -> 14 ;
15 [label="X[96] <= 0.908\ngini = 0.201\nsamples = 97\nvalue = [11, 86]"] ;
1 -> 15 ;
16 [label="X[40] <= 0.058\ngini = 0.172\nsamples = 95\nvalue = [9, 86]"] ;
15 -> 16 ;
17 [label="X[26] <= 0.07\ngini = 0.444\nsamples = 3\nvalue = [2, 1]"] ;
16 -> 17 ;
18 [label="gini = 0.0\nsamples = 2\nvalue = [2, 0]"] ;
17 -> 18 ;
19 [label="gini = 0.0\nsamples = 1\nvalue = [0, 1]"] ;
17 -> 19 ;
20 [label="X[16] <= 0.95\ngini = 0.141\nsamples = 92\nvalue = [7, 85]"] ;
16 -> 20 ;
21 [label="X[111] <= 0.853\ngini = 0.106\nsamples = 89\nvalue = [5, 84]"] ;
20 -> 21 ;
22 [label="X[101] <= 0.061\ngini = 0.087\nsamples = 88\nvalue = [4, 84]"] ;
21 -> 22 ;
23 [label="gini = 0.0\nsamples = 1\nvalue = [1, 0]"] ;
22 -> 23 ;
24 [label="X[17] <= 0.897\ngini = 0.067\nsamples = 87\nvalue = [3, 84]"] ;
22 -> 24 ;
25 [label="X[25] <= 1.0\ngini = 0.046\nsamples = 85\nvalue = [2, 83]"] ;
24 -> 25 ;
26 [label="X[71] <= 0.013\ngini = 0.024\nsamples = 83\nvalue = [1, 82]"] ;
25 -> 26 ;
27 [label="gini = 0.0\nsamples = 80\nvalue = [0, 80]"] ;
26 -> 27 ;
28 [label="X[39] <= 0.002\ngini = 0.444\nsamples = 3\nvalue = [1, 2]"] ;
26 -> 28 ;
29 [label="gini = 0.0\nsamples = 2\nvalue = [0, 2]"] ;
28 -> 29 ;
30 [label="gini = 0.0\nsamples = 1\nvalue = [1, 0]"] ;
28 -> 30 ;
31 [label="X[57] <= 0.931\ngini = 0.5\nsamples = 2\nvalue = [1, 1]"] ;
25 -> 31 ;
32 [label="gini = 0.0\nsamples = 1\nvalue = [0, 1]"] ;
31 -> 32 ;
33 [label="gini = 0.0\nsamples = 1\nvalue = [1, 0]"] ;
31 -> 33 ;
34 [label="X[97] <= 0.905\ngini = 0.5\nsamples = 2\nvalue = [1, 1]"] ;
24 -> 34 ;
35 [label="gini = 0.0\nsamples = 1\nvalue = [0, 1]"] ;
34 -> 35 ;
36 [label="gini = 0.0\nsamples = 1\nvalue = [1, 0]"] ;
34 -> 36 ;
37 [label="gini = 0.0\nsamples = 1\nvalue = [1, 0]"] ;
21 -> 37 ;
38 [label="X[50] <= 0.818\ngini = 0.444\nsamples = 3\nvalue = [2, 1]"] ;
20 -> 38 ;
39 [label="gini = 0.0\nsamples = 1\nvalue = [0, 1]"] ;
38 -> 39 ;
40 [label="gini = 0.0\nsamples = 2\nvalue = [2, 0]"] ;
38 -> 40 ;
41 [label="gini = 0.0\nsamples = 2\nvalue = [2, 0]"] ;
15 -> 41 ;
42 [label="X[92] <= 0.863\ngini = 0.487\nsamples = 262\nvalue = [110, 152]"] ;
0 -> 42 [labeldistance=2.5, labelangle=-45, headlabel="False"] ;
43 [label="X[114] <= 0.536\ngini = 0.444\nsamples = 42\nvalue = [28, 14]"] ;
42 -> 43 ;
44 [label="X[20] <= 0.006\ngini = 0.091\nsamples = 21\nvalue = [20, 1]"] ;
43 -> 44 ;
45 [label="gini = 0.0\nsamples = 20\nvalue = [20, 0]"] ;
44 -> 45 ;
46 [label="gini = 0.0\nsamples = 1\nvalue = [0, 1]"] ;
44 -> 46 ;
47 [label="X[48] <= 0.692\ngini = 0.472\nsamples = 21\nvalue = [8, 13]"] ;
43 -> 47 ;
48 [label="gini = 0.0\nsamples = 4\nvalue = [4, 0]"] ;
47 -> 48 ;
49 [label="X[104] <= 0.608\ngini = 0.36\nsamples = 17\nvalue = [4, 13]"] ;
47 -> 49 ;
50 [label="X[91] <= 0.942\ngini = 0.142\nsamples = 13\nvalue = [1, 12]"] ;
49 -> 50 ;
51 [label="gini = 0.0\nsamples = 12\nvalue = [0, 12]"] ;
50 -> 51 ;
52 [label="gini = 0.0\nsamples = 1\nvalue = [1, 0]"] ;
50 -> 52 ;
53 [label="X[58] <= 0.905\ngini = 0.375\nsamples = 4\nvalue = [3, 1]"] ;
49 -> 53 ;
54 [label="gini = 0.0\nsamples = 3\nvalue = [3, 0]"] ;
53 -> 54 ;
55 [label="gini = 0.0\nsamples = 1\nvalue = [0, 1]"] ;
53 -> 55 ;
56 [label="X[101] <= 0.153\ngini = 0.468\nsamples = 220\nvalue = [82, 138]"] ;
42 -> 56 ;
57 [label="gini = 0.0\nsamples = 6\nvalue = [6, 0]"] ;
56 -> 57 ;
58 [label="X[105] <= 0.431\ngini = 0.458\nsamples = 214\nvalue = [76, 138]"] ;
56 -> 58 ;
59 [label="X[36] <= 0.003\ngini = 0.375\nsamples = 108\nvalue = [27, 81]"] ;
58 -> 59 ;
60 [label="X[14] <= 0.836\ngini = 0.305\nsamples = 96\nvalue = [18, 78]"] ;
59 -> 60 ;
61 [label="X[51] <= 0.312\ngini = 0.185\nsamples = 68\nvalue = [7, 61]"] ;
60 -> 61 ;
62 [label="X[55] <= 0.889\ngini = 0.375\nsamples = 4\nvalue = [3, 1]"] ;
61 -> 62 ;
63 [label="gini = 0.0\nsamples = 1\nvalue = [0, 1]"] ;
62 -> 63 ;
64 [label="gini = 0.0\nsamples = 3\nvalue = [3, 0]"] ;
62 -> 64 ;
65 [label="X[98] <= 0.93\ngini = 0.117\nsamples = 64\nvalue = [4, 60]"] ;
61 -> 65 ;
66 [label="X[82] <= 0.819\ngini = 0.063\nsamples = 61\nvalue = [2, 59]"] ;
65 -> 66 ;
67 [label="X[26] <= 0.098\ngini = 0.033\nsamples = 60\nvalue = [1, 59]"] ;
66 -> 67 ;
68 [label="gini = 0.0\nsamples = 59\nvalue = [0, 59]"] ;
67 -> 68 ;
69 [label="gini = 0.0\nsamples = 1\nvalue = [1, 0]"] ;
67 -> 69 ;
70 [label="gini = 0.0\nsamples = 1\nvalue = [1, 0]"] ;
66 -> 70 ;
71 [label="X[47] <= 0.504\ngini = 0.444\nsamples = 3\nvalue = [2, 1]"] ;
65 -> 71 ;
72 [label="gini = 0.0\nsamples = 1\nvalue = [0, 1]"] ;
71 -> 72 ;
73 [label="gini = 0.0\nsamples = 2\nvalue = [2, 0]"] ;
71 -> 73 ;
74 [label="X[26] <= 0.028\ngini = 0.477\nsamples = 28\nvalue = [11, 17]"] ;
60 -> 74 ;
75 [label="X[17] <= 0.683\ngini = 0.488\nsamples = 19\nvalue = [11, 8]"] ;
74 -> 75 ;
76 [label="X[80] <= 0.863\ngini = 0.444\nsamples = 12\nvalue = [4, 8]"] ;
75 -> 76 ;
77 [label="gini = 0.0\nsamples = 6\nvalue = [0, 6]"] ;
76 -> 77 ;
78 [label="X[106] <= 0.596\ngini = 0.444\nsamples = 6\nvalue = [4, 2]"] ;
76 -> 78 ;
79 [label="gini = 0.0\nsamples = 4\nvalue = [4, 0]"] ;
78 -> 79 ;
80 [label="gini = 0.0\nsamples = 2\nvalue = [0, 2]"] ;
78 -> 80 ;
81 [label="gini = 0.0\nsamples = 7\nvalue = [7, 0]"] ;
75 -> 81 ;
82 [label="gini = 0.0\nsamples = 9\nvalue = [0, 9]"] ;
74 -> 82 ;
83 [label="X[93] <= 0.812\ngini = 0.375\nsamples = 12\nvalue = [9, 3]"] ;
59 -> 83 ;
84 [label="X[8] <= 0.746\ngini = 0.375\nsamples = 4\nvalue = [1, 3]"] ;
83 -> 84 ;
85 [label="gini = 0.0\nsamples = 3\nvalue = [0, 3]"] ;
84 -> 85 ;
86 [label="gini = 0.0\nsamples = 1\nvalue = [1, 0]"] ;
84 -> 86 ;
87 [label="gini = 0.0\nsamples = 8\nvalue = [8, 0]"] ;
83 -> 87 ;
88 [label="X[21] <= 0.001\ngini = 0.497\nsamples = 106\nvalue = [49, 57]"] ;
58 -> 88 ;
89 [label="X[96] <= 0.882\ngini = 0.468\nsamples = 83\nvalue = [31, 52]"] ;
88 -> 89 ;
90 [label="X[0] <= 0.907\ngini = 0.5\nsamples = 57\nvalue = [29, 28]"] ;
89 -> 90 ;
91 [label="X[1] <= 0.833\ngini = 0.467\nsamples = 43\nvalue = [27, 16]"] ;
90 -> 91 ;
92 [label="X[11] <= 0.87\ngini = 0.497\nsamples = 24\nvalue = [11, 13]"] ;
91 -> 92 ;
93 [label="X[102] <= 0.306\ngini = 0.401\nsamples = 18\nvalue = [5, 13]"] ;
92 -> 93 ;
94 [label="gini = 0.0\nsamples = 3\nvalue = [3, 0]"] ;
93 -> 94 ;
95 [label="X[41] <= 0.233\ngini = 0.231\nsamples = 15\nvalue = [2, 13]"] ;
93 -> 95 ;
96 [label="gini = 0.0\nsamples = 2\nvalue = [2, 0]"] ;
95 -> 96 ;
97 [label="gini = 0.0\nsamples = 13\nvalue = [0, 13]"] ;
95 -> 97 ;
98 [label="gini = 0.0\nsamples = 6\nvalue = [6, 0]"] ;
92 -> 98 ;
99 [label="X[81] <= 0.897\ngini = 0.266\nsamples = 19\nvalue = [16, 3]"] ;
91 -> 99 ;
100 [label="X[53] <= 0.356\ngini = 0.111\nsamples = 17\nvalue = [16, 1]"] ;
99 -> 100 ;
101 [label="gini = 0.0\nsamples = 1\nvalue = [0, 1]"] ;
100 -> 101 ;
102 [label="gini = 0.0\nsamples = 16\nvalue = [16, 0]"] ;
100 -> 102 ;
103 [label="gini = 0.0\nsamples = 2\nvalue = [0, 2]"] ;
99 -> 103 ;
104 [label="X[12] <= 0.866\ngini = 0.245\nsamples = 14\nvalue = [2, 12]"] ;
90 -> 104 ;
105 [label="gini = 0.0\nsamples = 12\nvalue = [0, 12]"] ;
104 -> 105 ;
106 [label="gini = 0.0\nsamples = 2\nvalue = [2, 0]"] ;
104 -> 106 ;
107 [label="X[92] <= 0.917\ngini = 0.142\nsamples = 26\nvalue = [2, 24]"] ;
89 -> 107 ;
108 [label="gini = 0.0\nsamples = 23\nvalue = [0, 23]"] ;
107 -> 108 ;
109 [label="X[80] <= 0.884\ngini = 0.444\nsamples = 3\nvalue = [2, 1]"] ;
107 -> 109 ;
110 [label="gini = 0.0\nsamples = 2\nvalue = [2, 0]"] ;
109 -> 110 ;
111 [label="gini = 0.0\nsamples = 1\nvalue = [0, 1]"] ;
109 -> 111 ;
112 [label="X[102] <= 0.265\ngini = 0.34\nsamples = 23\nvalue = [18, 5]"] ;
88 -> 112 ;
113 [label="X[33] <= 0.0\ngini = 0.375\nsamples = 4\nvalue = [1, 3]"] ;
112 -> 113 ;
114 [label="gini = 0.0\nsamples = 3\nvalue = [0, 3]"] ;
113 -> 114 ;
115 [label="gini = 0.0\nsamples = 1\nvalue = [1, 0]"] ;
113 -> 115 ;
116 [label="X[81] <= 0.486\ngini = 0.188\nsamples = 19\nvalue = [17, 2]"] ;
112 -> 116 ;
117 [label="X[2] <= 0.683\ngini = 0.444\nsamples = 3\nvalue = [1, 2]"] ;
116 -> 117 ;
118 [label="gini = 0.0\nsamples = 2\nvalue = [0, 2]"] ;
117 -> 118 ;
119 [label="gini = 0.0\nsamples = 1\nvalue = [1, 0]"] ;
117 -> 119 ;
120 [label="gini = 0.0\nsamples = 16\nvalue = [16, 0]"] ;
116 -> 120 ;
}
